<?xml version="1.0"?>
<opencv_storage>
<cascade>
  <stageType>BOOST</stageType>
  <featureType>HAAR</featureType>
  <height>24</height>
  <width>24</width>
  <stageParams>
    <boostType>GAB</boostType>
    <minHitRate>9.9900001287460327e-01</minHitRate>
    <maxFalseAlarm>5.0000000000000000e-01</maxFalseAlarm>
    <weightTrimRate>9.4999999999999996e-01</weightTrimRate>
    <maxDepth>1</maxDepth>
    <maxWeakCount>100</maxWeakCount></stageParams>
  <featureParams>
    <maxCatCount>0</maxCatCount>
    <featSize>1</featSize>
    <mode>ALL</mode></featureParams>
  <stageNum>17</stageNum>
  <stages>
    <!-- stage 0 -->
    <_>
      <maxWeakCount>4</maxWeakCount>
      <stageThreshold>-2.1420924663543701e+00</stageThreshold>
      <weakClassifiers>
        <_>
          <internalNodes>
            0 -1 69 -8.9336887001991272e-02</internalNodes>
          <leafValues>
            7.6508975028991699e-01 -9.2114937305450439e-01</leafValues></_>
        <_>
          <internalNodes>
            0 -1 21 -4.6108923852443695e-02</internalNodes>
          <leafValues>
            5.5122375488281250e-01 -9.3453526496887207e-01</leafValues></_>
        <_>
          <internalNodes>
            0 -1 13 3.4449808299541473e-02</internalNodes>
          <leafValues>
            -8.2266157865524292e-01 5.2950221300125122e-01</leafValues></_>
        <_>
          <internalNodes>
            0 -1 97 4.5074656605720520e-02</internalNodes>
          <leafValues>
            -8.1591016054153442e-01 5.4085445404052734e-01</leafValues></_></weakClassifiers></_>
    <!-- stage 1 -->
    <_>
      <maxWeakCount>7</maxWeakCount>
      <stageThreshold>-2.2872817516326904e+00</stageThreshold>
      <weakClassifiers>
        <_>
          <internalNodes>
            0 -1 29 -5.0115764141082764e-01</internalNodes>
          <leafValues>
            5.8211255073547363e-01 -8.8090348243713379e-01</leafValues></_>
        <_>
          <internalNodes>
            0 -1 50 -1.0322678089141846e-01</internalNodes>
          <leafValues>
            2.4191473424434662e-01 -9.2363166809082031e-01</leafValues></_>
        <_>
          <internalNodes>
            0 -1 22 -5.9745937585830688e-02</internalNodes>
          <leafValues>
            3.0478274822235107e-01 -8.0642312765121460e-01</leafValues></_>
        <_>
          <internalNodes>
            0 -1 27 -1.3419909402728081e-02</internalNodes>
          <leafValues>
            5.8937901258468628e-01 -4.6929410099983215e-01</leafValues></_>
        <_>
          <internalNodes>
            0 -1 68 -3.0185442417860031e-02</internalNodes>
          <leafValues>
            6.2670415639877319e-01 -4.2804169654846191e-01</leafValues></_>
        <_>
          <internalNodes>
            0 -1 94 3.6898306570947170e-03</internalNodes>
          <leafValues>
            -5.4222875833511353e-01 5.0880849361419678e-01</leafValues></_>
        <_>
          <internalNodes>
            0 -1 164 -2.0209752023220062e-02</internalNodes>
          <leafValues>
            6.5203523635864258e-01 -3.5949489474296570e-01</leafValues></_></weakClassifiers></_>
    <!-- stage 2 -->
    <_>
      <maxWeakCount>7</maxWeakCount>
      <stageThreshold>-1.9779154062271118e+00</stageThreshold>
      <weakClassifiers>
        <_>
          <internalNodes>
            0 -1 56 -1.8918204307556152e-01</internalNodes>
          <leafValues>
            4.9185043573379517e-01 -7.3425692319869995e-01</leafValues></_>
        <_>
          <internalNodes>
            0 -1 122 -8.4034070372581482e-02</internalNodes>
          <leafValues>
            4.1058099269866943e-01 -7.2001212835311890e-01</leafValues></_>
        <_>
          <internalNodes>
            0 -1 74 2.8447553515434265e-02</internalNodes>
          <leafValues>
            -8.9241749048233032e-01 2.9136940836906433e-01</leafValues></_>
        <_>
          <internalNodes>
            0 -1 11 2.6748865842819214e-02</internalNodes>
          <leafValues>
            -6.1895048618316650e-01 4.3577769398689270e-01</leafValues></_>
        <_>
          <internalNodes>
            0 -1 88 -2.3828160483390093e-03</internalNodes>
          <leafValues>
            4.4489026069641113e-01 -5.9507536888122559e-01</leafValues></_>
        <_>
          <internalNodes>
            0 -1 1 -4.8465196043252945e-02</internalNodes>
          <leafValues>
            2.6210910081863403e-01 -7.7993345260620117e-01</leafValues></_>
        <_>
          <internalNodes>
            0 -1 91 -4.3968192767351866e-04</internalNodes>
          <leafValues>
            2.8072232007980347e-01 -5.8174628019332886e-01</leafValues></_></weakClassifiers></_>
    <!-- stage 3 -->
    <_>
      <maxWeakCount>9</maxWeakCount>
      <stageThreshold>-1.6194994449615479e+00</stageThreshold>
      <weakClassifiers>
        <_>
          <internalNodes>
            0 -1 42 -1.7279019951820374e-01</internalNodes>
          <leafValues>
            2.9758307337760925e-01 -7.6442140340805054e-01</leafValues></_>
        <_>
          <internalNodes>
            0 -1 108 1.7573235090821981e-03</internalNodes>
          <leafValues>
            -4.4166573882102966e-01 7.3431509733200073e-01</leafValues></_>
        <_>
          <internalNodes>
            0 -1 70 4.6413749456405640e-02</internalNodes>
          <leafValues>
            -8.5105687379837036e-01 2.7503660321235657e-01</leafValues></_>
        <_>
          <internalNodes>
            0 -1 135 -2.2128600627183914e-02</internalNodes>
          <leafValues>
            3.6238384246826172e-01 -5.6942683458328247e-01</leafValues></_>
        <_>
          <internalNodes>
            0 -1 12 3.8025937974452972e-02</internalNodes>
          <leafValues>
            -6.6315299272537231e-01 2.6557177305221558e-01</leafValues></_>
        <_>
          <internalNodes>
            0 -1 71 7.1070794947445393e-03</internalNodes>
          <leafValues>
            2.0058432221412659e-01 -9.1008108854293823e-01</leafValues></_>
        <_>
          <internalNodes>
            0 -1 80 -1.4655420556664467e-02</internalNodes>
          <leafValues>
            4.9174910783767700e-01 -4.1133946180343628e-01</leafValues></_>
        <_>
          <internalNodes>
            0 -1 144 3.9715461432933807e-02</internalNodes>
          <leafValues>
            -2.9711326956748962e-01 7.1585893630981445e-01</leafValues></_>
        <_>
          <internalNodes>
            0 -1 44 1.1851696763187647e-04</internalNodes>
          <leafValues>
            3.1755736470222473e-01 -6.1789458990097046e-01</leafValues></_></weakClassifiers></_>
    <!-- stage 4 -->
    <_>
      <maxWeakCount>9</maxWeakCount>
      <stageThreshold>-2.0355746746063232e+00</stageThreshold>
      <weakClassifiers>
        <_>
          <internalNodes>
            0 -1 102 5.3365103667601943e-04</internalNodes>
          <leafValues>
            -7.1857285499572754e-01 2.7540984749794006e-01</leafValues></_>
        <_>
          <internalNodes>
            0 -1 20 -1.4706823043525219e-02</internalNodes>
          <leafValues>
            3.0772385001182556e-01 -7.2009211778640747e-01</leafValues></_>
        <_>
          <internalNodes>
            0 -1 104 -6.9795668125152588e-02</internalNodes>
          <leafValues>
            3.1385651230812073e-01 -7.0003408193588257e-01</leafValues></_>
        <_>
          <internalNodes>
            0 -1 118 6.6545250592753291e-04</internalNodes>
          <leafValues>
            -3.7500506639480591e-01 5.4151344299316406e-01</leafValues></_>
        <_>
          <internalNodes>
            0 -1 55 1.7208751291036606e-02</internalNodes>
          <leafValues>
            -3.2919457554817200e-01 6.1652147769927979e-01</leafValues></_>
        <_>
          <internalNodes>
            0 -1 81 -6.5921738743782043e-02</internalNodes>
          <leafValues>
            2.1567408740520477e-01 -8.4529852867126465e-01</leafValues></_>
        <_>
          <internalNodes>
            0 -1 68 -2.3277701810002327e-02</internalNodes>
          <leafValues>
            3.0626505613327026e-01 -5.5813688039779663e-01</leafValues></_>
        <_>
          <internalNodes>
            0 -1 84 3.5465955734252930e-02</internalNodes>
          <leafValues>
            1.6914163529872894e-01 -9.9379098415374756e-01</leafValues></_>
        <_>
          <internalNodes>
            0 -1 123 4.2640608735382557e-03</internalNodes>
          <leafValues>
            1.1624331772327423e-01 -9.5316565036773682e-01</leafValues></_></weakClassifiers></_>
    <!-- stage 5 -->
    <_>
      <maxWeakCount>10</maxWeakCount>
      <stageThreshold>-1.8719147443771362e+00</stageThreshold>
      <weakClassifiers>
        <_>
          <internalNodes>
            0 -1 108 1.9049432594329119e-03</internalNodes>
          <leafValues>
            -6.5441179275512695e-01 3.3193716406822205e-01</leafValues></_>
        <_>
          <internalNodes>
            0 -1 100 -5.5337920784950256e-03</internalNodes>
          <leafValues>
            3.8913211226463318e-01 -5.0593471527099609e-01</leafValues></_>
        <_>
          <internalNodes>
            0 -1 5 -3.1304970383644104e-02</internalNodes>
          <leafValues>
            3.3116695284843445e-01 -5.4281979799270630e-01</leafValues></_>
        <_>
          <internalNodes>
            0 -1 75 4.6842984855175018e-02</internalNodes>
          <leafValues>
            -4.5852291584014893e-01 3.4721431136131287e-01</leafValues></_>
        <_>
          <internalNodes>
            0 -1 54 6.7347353324294090e-03</internalNodes>
          <leafValues>
            -3.6682972311973572e-01 4.6143034100532532e-01</leafValues></_>
        <_>
          <internalNodes>
            0 -1 150 -1.0037941858172417e-02</internalNodes>
          <leafValues>
            1.8559926748275757e-01 -7.6308333873748779e-01</leafValues></_>
        <_>
          <internalNodes>
            0 -1 134 -8.7819695472717285e-03</internalNodes>
          <leafValues>
            -8.9796298742294312e-01 1.7002812027931213e-01</leafValues></_>
        <_>
          <internalNodes>
            0 -1 28 2.0934370160102844e-01</internalNodes>
          <leafValues>
            1.1080821603536606e-01 -9.0879046916961670e-01</leafValues></_>
        <_>
          <internalNodes>
            0 -1 162 -2.0052875333931297e-04</internalNodes>
          <leafValues>
            -6.9576549530029297e-01 1.7672750353813171e-01</leafValues></_>
        <_>
          <internalNodes>
            0 -1 153 -2.3021176457405090e-04</internalNodes>
          <leafValues>
            -7.8205859661102295e-01 1.5638650953769684e-01</leafValues></_></weakClassifiers></_>
    <!-- stage 6 -->
    <_>
      <maxWeakCount>13</maxWeakCount>
      <stageThreshold>-2.1303269863128662e+00</stageThreshold>
      <weakClassifiers>
        <_>
          <internalNodes>
            0 -1 105 -1.9631497561931610e-02</internalNodes>
          <leafValues>
            1.6271185874938965e-01 -6.6173082590103149e-01</leafValues></_>
        <_>
          <internalNodes>
            0 -1 113 1.0266845347359776e-03</internalNodes>
          <leafValues>
            -3.7689930200576782e-01 5.4980492591857910e-01</leafValues></_>
        <_>
          <internalNodes>
            0 -1 53 -1.9480966031551361e-02</internalNodes>
          <leafValues>
            2.8148272633552551e-01 -6.4342021942138672e-01</leafValues></_>
        <_>
          <internalNodes>
            0 -1 6 4.3738782405853271e-03</internalNodes>
          <leafValues>
            -3.3129608631134033e-01 4.2065754532814026e-01</leafValues></_>
        <_>
          <internalNodes>
            0 -1 115 1.2824021723645274e-05</internalNodes>
          <leafValues>
            -3.7603569030761719e-01 3.7919092178344727e-01</leafValues></_>
        <_>
          <internalNodes>
            0 -1 93 -1.0496743198018521e-04</internalNodes>
          <leafValues>
            1.9728650152683258e-01 -7.4102121591567993e-01</leafValues></_>
        <_>
          <internalNodes>
            0 -1 44 -1.9633260671980679e-04</internalNodes>
          <leafValues>
            -6.9980537891387939e-01 2.0875185728073120e-01</leafValues></_>
        <_>
          <internalNodes>
            0 -1 149 -1.6487328684888780e-04</internalNodes>
          <leafValues>
            -7.0184224843978882e-01 1.7959874868392944e-01</leafValues></_>
        <_>
          <internalNodes>
            0 -1 132 2.1547213196754456e-02</internalNodes>
          <leafValues>
            -5.8361804485321045e-01 2.3002547025680542e-01</leafValues></_>
        <_>
          <internalNodes>
            0 -1 131 5.0604711286723614e-03</internalNodes>
          <leafValues>
            1.3689719140529633e-01 -8.4127920866012573e-01</leafValues></_>
        <_>
          <internalNodes>
            0 -1 133 9.0304412879049778e-05</internalNodes>
          <leafValues>
            1.8189017474651337e-01 -6.3778239488601685e-01</leafValues></_>
        <_>
          <internalNodes>
            0 -1 133 -1.7580858548171818e-04</internalNodes>
          <leafValues>
            -6.9410502910614014e-01 2.1368452906608582e-01</leafValues></_>
        <_>
          <internalNodes>
            0 -1 87 1.4502466656267643e-03</internalNodes>
          <leafValues>
            -3.2069897651672363e-01 5.2127707004547119e-01</leafValues></_></weakClassifiers></_>
    <!-- stage 7 -->
    <_>
      <maxWeakCount>13</maxWeakCount>
      <stageThreshold>-1.7426420450210571e+00</stageThreshold>
      <weakClassifiers>
        <_>
          <internalNodes>
            0 -1 57 -3.9620913565158844e-02</internalNodes>
          <leafValues>
            -6.0154240578413010e-02 -7.4846088886260986e-01</leafValues></_>
        <_>
          <internalNodes>
            0 -1 125 -4.8284847289323807e-02</internalNodes>
          <leafValues>
            2.1956121921539307e-01 -5.9430778026580811e-01</leafValues></_>
        <_>
          <internalNodes>
            0 -1 92 -2.1584289148449898e-02</internalNodes>
          <leafValues>
            3.2703453302383423e-01 -4.5842486619949341e-01</leafValues></_>
        <_>
          <internalNodes>
            0 -1 16 3.2072812318801880e-02</internalNodes>
          <leafValues>
            -2.6912438869476318e-01 5.3103196620941162e-01</leafValues></_>
        <_>
          <internalNodes>
            0 -1 108 9.4467739108949900e-04</internalNodes>
          <leafValues>
            -3.4558895230293274e-01 4.1567319631576538e-01</leafValues></_>
        <_>
          <internalNodes>
            0 -1 78 -2.1420131088234484e-04</internalNodes>
          <leafValues>
            -7.6541191339492798e-01 1.9313749670982361e-01</leafValues></_>
        <_>
          <internalNodes>
            0 -1 78 1.1273954442003742e-04</internalNodes>
          <leafValues>
            1.9808012247085571e-01 -6.7678833007812500e-01</leafValues></_>
        <_>
          <internalNodes>
            0 -1 130 9.6725914627313614e-03</internalNodes>
          <leafValues>
            -8.0849891901016235e-01 1.3304796814918518e-01</leafValues></_>
        <_>
          <internalNodes>
            0 -1 30 -1.5891544520854950e-02</internalNodes>
          <leafValues>
            1.4353889226913452e-01 -7.8245884180068970e-01</leafValues></_>
        <_>
          <internalNodes>
            0 -1 85 -1.2036673724651337e-02</internalNodes>
          <leafValues>
            -8.3143013715744019e-01 1.1383736878633499e-01</leafValues></_>
        <_>
          <internalNodes>
            0 -1 14 -6.1854504048824310e-02</internalNodes>
          <leafValues>
            -8.1692814826965332e-01 1.2472903728485107e-01</leafValues></_>
        <_>
          <internalNodes>
            0 -1 83 7.9886410385370255e-03</internalNodes>
          <leafValues>
            -9.0810638666152954e-01 1.1420275270938873e-01</leafValues></_>
        <_>
          <internalNodes>
            0 -1 110 8.7571024894714355e-02</internalNodes>
          <leafValues>
            1.2684927880764008e-01 -7.5653272867202759e-01</leafValues></_></weakClassifiers></_>
    <!-- stage 8 -->
    <_>
      <maxWeakCount>15</maxWeakCount>
      <stageThreshold>-1.9400048255920410e+00</stageThreshold>
      <weakClassifiers>
        <_>
          <internalNodes>
            0 -1 106 -2.4911621585488319e-03</internalNodes>
          <leafValues>
            -9.4831913709640503e-02 -7.3225516080856323e-01</leafValues></_>
        <_>
          <internalNodes>
            0 -1 18 -1.9750153645873070e-02</internalNodes>
          <leafValues>
            2.1854773163795471e-01 -5.6743377447128296e-01</leafValues></_>
        <_>
          <internalNodes>
            0 -1 67 -2.1724559366703033e-02</internalNodes>
          <leafValues>
            2.6106968522071838e-01 -5.0645673274993896e-01</leafValues></_>
        <_>
          <internalNodes>
            0 -1 165 -2.6098797097802162e-03</internalNodes>
          <leafValues>
            4.0233391523361206e-01 -3.5771554708480835e-01</leafValues></_>
        <_>
          <internalNodes>
            0 -1 73 -7.2483718395233154e-04</internalNodes>
          <leafValues>
            2.1287782490253448e-01 -7.4688857793807983e-01</leafValues></_>
        <_>
          <internalNodes>
            0 -1 101 1.7888868227601051e-02</internalNodes>
          <leafValues>
            1.1424713581800461e-01 -8.6150997877120972e-01</leafValues></_>
        <_>
          <internalNodes>
            0 -1 41 6.1737261712551117e-02</internalNodes>
          <leafValues>
            -2.0622630417346954e-01 7.2265613079071045e-01</leafValues></_>
        <_>
          <internalNodes>
            0 -1 121 1.4160659338813275e-04</internalNodes>
          <leafValues>
            2.3419597744941711e-01 -6.3855421543121338e-01</leafValues></_>
        <_>
          <internalNodes>
            0 -1 36 -6.4894944429397583e-02</internalNodes>
          <leafValues>
            1.4846251904964447e-01 -6.7791670560836792e-01</leafValues></_>
        <_>
          <internalNodes>
            0 -1 63 1.4657709002494812e-01</internalNodes>
          <leafValues>
            1.0249017924070358e-01 -8.7885642051696777e-01</leafValues></_>
        <_>
          <internalNodes>
            0 -1 120 -1.3701112766284496e-04</internalNodes>
          <leafValues>
            -6.4489924907684326e-01 1.5844321250915527e-01</leafValues></_>
        <_>
          <internalNodes>
            0 -1 143 2.6778653264045715e-02</internalNodes>
          <leafValues>
            9.8806850612163544e-02 -8.5547655820846558e-01</leafValues></_>
        <_>
          <internalNodes>
            0 -1 160 -3.8360489998012781e-04</internalNodes>
          <leafValues>
            -6.5145641565322876e-01 1.3027356564998627e-01</leafValues></_>
        <_>
          <internalNodes>
            0 -1 126 -3.7574158050119877e-03</internalNodes>
          <leafValues>
            -8.4488439559936523e-01 1.0082919150590897e-01</leafValues></_>
        <_>
          <internalNodes>
            0 -1 8 -6.8787112832069397e-02</internalNodes>
          <leafValues>
            -7.2718250751495361e-01 1.2500640749931335e-01</leafValues></_></weakClassifiers></_>
    <!-- stage 9 -->
    <_>
      <maxWeakCount>14</maxWeakCount>
      <stageThreshold>-1.7095452547073364e+00</stageThreshold>
      <weakClassifiers>
        <_>
          <internalNodes>
            0 -1 116 7.0527906063944101e-04</internalNodes>
          <leafValues>
            -6.7448574304580688e-01 3.4530386328697205e-02</leafValues></_>
        <_>
          <internalNodes>
            0 -1 52 -1.2039043009281158e-02</internalNodes>
          <leafValues>
            1.0510133951902390e-01 -7.9235810041427612e-01</leafValues></_>
        <_>
          <internalNodes>
            0 -1 49 1.0613854043185711e-02</internalNodes>
          <leafValues>
            -5.1340639591217041e-01 2.2757108509540558e-01</leafValues></_>
        <_>
          <internalNodes>
            0 -1 4 -4.6509422361850739e-02</internalNodes>
          <leafValues>
            1.8622918426990509e-01 -6.3566750288009644e-01</leafValues></_>
        <_>
          <internalNodes>
            0 -1 90 -3.0400841496884823e-03</internalNodes>
          <leafValues>
            2.2790125012397766e-01 -5.0555890798568726e-01</leafValues></_>
        <_>
          <internalNodes>
            0 -1 25 -2.7459551347419620e-04</internalNodes>
          <leafValues>
            -6.5528273582458496e-01 1.5487709641456604e-01</leafValues></_>
        <_>
          <internalNodes>
            0 -1 114 2.4733422833378427e-05</internalNodes>
          <leafValues>
            -3.6048910021781921e-01 3.1291204690933228e-01</leafValues></_>
        <_>
          <internalNodes>
            0 -1 146 7.2581414133310318e-03</internalNodes>
          <leafValues>
            -3.4748122096061707e-01 4.1498768329620361e-01</leafValues></_>
        <_>
          <internalNodes>
            0 -1 129 9.6154370112344623e-04</internalNodes>
          <leafValues>
            -4.0411785244941711e-01 2.6521033048629761e-01</leafValues></_>
        <_>
          <internalNodes>
            0 -1 34 -1.0680545866489410e-01</internalNodes>
          <leafValues>
            7.6175445318222046e-01 -1.7467415332794189e-01</leafValues></_>
        <_>
          <internalNodes>
            0 -1 99 -1.3663740828633308e-02</internalNodes>
          <leafValues>
            -7.4048984050750732e-01 1.7330123484134674e-01</leafValues></_>
        <_>
          <internalNodes>
            0 -1 72 -2.2402182221412659e-03</internalNodes>
          <leafValues>
            5.8776384592056274e-01 -2.2214686870574951e-01</leafValues></_>
        <_>
          <internalNodes>
            0 -1 59 -1.0700736939907074e-01</internalNodes>
          <leafValues>
            1.7267827689647675e-01 -7.3279124498367310e-01</leafValues></_>
        <_>
          <internalNodes>
            0 -1 0 1.7303284039371647e-05</internalNodes>
          <leafValues>
            -4.3041130900382996e-01 2.2187653183937073e-01</leafValues></_></weakClassifiers></_>
    <!-- stage 10 -->
    <_>
      <maxWeakCount>15</maxWeakCount>
      <stageThreshold>-1.4003480672836304e+00</stageThreshold>
      <weakClassifiers>
        <_>
          <internalNodes>
            0 -1 127 -5.0272827502340078e-04</internalNodes>
          <leafValues>
            -5.0188206136226654e-02 -6.6247618198394775e-01</leafValues></_>
        <_>
          <internalNodes>
            0 -1 10 2.8254365548491478e-02</internalNodes>
          <leafValues>
            -4.0472903847694397e-01 2.8535610437393188e-01</leafValues></_>
        <_>
          <internalNodes>
            0 -1 118 1.0671262862160802e-03</internalNodes>
          <leafValues>
            -2.6509261131286621e-01 4.3139129877090454e-01</leafValues></_>
        <_>
          <internalNodes>
            0 -1 103 4.2361300438642502e-03</internalNodes>
          <leafValues>
            -2.4440507590770721e-01 4.8490500450134277e-01</leafValues></_>
        <_>
          <internalNodes>
            0 -1 76 5.3755640983581543e-02</internalNodes>
          <leafValues>
            -2.6937294006347656e-01 4.3381339311599731e-01</leafValues></_>
        <_>
          <internalNodes>
            0 -1 26 -9.2797808349132538e-02</internalNodes>
          <leafValues>
            5.9553325176239014e-01 -1.6407606005668640e-01</leafValues></_>
        <_>
          <internalNodes>
            0 -1 137 1.0484340600669384e-02</internalNodes>
          <leafValues>
            -8.6277776956558228e-01 1.2763737142086029e-01</leafValues></_>
        <_>
          <internalNodes>
            0 -1 94 5.6920894421637058e-03</internalNodes>
          <leafValues>
            -4.4145420193672180e-01 2.4068316817283630e-01</leafValues></_>
        <_>
          <internalNodes>
            0 -1 3 4.5279335230588913e-02</internalNodes>
          <leafValues>
            -1.6868735849857330e-01 6.5341079235076904e-01</leafValues></_>
        <_>
          <internalNodes>
            0 -1 159 -1.8798466771841049e-04</internalNodes>
          <leafValues>
            -6.7537713050842285e-01 1.8418163061141968e-01</leafValues></_>
        <_>
          <internalNodes>
            0 -1 154 -1.1598848686844576e-05</internalNodes>
          <leafValues>
            3.4491115808486938e-01 -3.7285080552101135e-01</leafValues></_>
        <_>
          <internalNodes>
            0 -1 19 -5.4027047008275986e-03</internalNodes>
          <leafValues>
            1.7649318277835846e-01 -6.1026805639266968e-01</leafValues></_>
        <_>
          <internalNodes>
            0 -1 24 -2.0981539273634553e-04</internalNodes>
          <leafValues>
            -5.9408998489379883e-01 1.6182406246662140e-01</leafValues></_>
        <_>
          <internalNodes>
            0 -1 61 -1.7560354535817169e-05</internalNodes>
          <leafValues>
            1.6712617874145508e-01 -5.6272101402282715e-01</leafValues></_>
        <_>
          <internalNodes>
            0 -1 119 -5.3802132606506348e-03</internalNodes>
          <leafValues>
            3.9439624547958374e-01 -2.6699966192245483e-01</leafValues></_></weakClassifiers></_>
    <!-- stage 11 -->
    <_>
      <maxWeakCount>17</maxWeakCount>
      <stageThreshold>-1.8110976219177246e+00</stageThreshold>
      <weakClassifiers>
        <_>
          <internalNodes>
            0 -1 108 2.2942624054849148e-03</internalNodes>
          <leafValues>
            -5.9899908304214478e-01 9.3933463096618652e-02</leafValues></_>
        <_>
          <internalNodes>
            0 -1 17 -2.8343419544398785e-03</internalNodes>
          <leafValues>
            2.8864100575447083e-01 -4.0541347861289978e-01</leafValues></_>
        <_>
          <internalNodes>
            0 -1 107 -1.4575077220797539e-03</internalNodes>
          <leafValues>
            2.1577697992324829e-01 -5.9711289405822754e-01</leafValues></_>
        <_>
          <internalNodes>
            0 -1 86 2.0740404725074768e-02</internalNodes>
          <leafValues>
            1.5010255575180054e-01 -8.8904893398284912e-01</leafValues></_>
        <_>
          <internalNodes>
            0 -1 23 -2.4326231330633163e-02</internalNodes>
          <leafValues>
            7.0857010781764984e-02 -9.1803389787673950e-01</leafValues></_>
        <_>
          <internalNodes>
            0 -1 46 1.5452920342795551e-04</internalNodes>
          <leafValues>
            2.1666187047958374e-01 -5.5229026079177856e-01</leafValues></_>
        <_>
          <internalNodes>
            0 -1 161 -5.6670997291803360e-03</internalNodes>
          <leafValues>
            5.7818609476089478e-01 -2.0191453397274017e-01</leafValues></_>
        <_>
          <internalNodes>
            0 -1 166 1.5793238708283752e-04</internalNodes>
          <leafValues>
            1.9861283898353577e-01 -5.5376625061035156e-01</leafValues></_>
        <_>
          <internalNodes>
            0 -1 35 -1.1648415029048920e-01</internalNodes>
          <leafValues>
            -6.5546655654907227e-01 1.6338185966014862e-01</leafValues></_>
        <_>
          <internalNodes>
            0 -1 66 -1.0117523372173309e-02</internalNodes>
          <leafValues>
            4.0053439140319824e-01 -3.3484348654747009e-01</leafValues></_>
        <_>
          <internalNodes>
            0 -1 79 2.4717431515455246e-02</internalNodes>
          <leafValues>
            -1.8232056498527527e-01 8.1841319799423218e-01</leafValues></_>
        <_>
          <internalNodes>
            0 -1 47 -3.4124180674552917e-02</internalNodes>
          <leafValues>
            3.0594283342361450e-01 -5.0262773036956787e-01</leafValues></_>
        <_>
          <internalNodes>
            0 -1 98 4.9931900575757027e-03</internalNodes>
          <leafValues>
            -8.0619263648986816e-01 1.4354929327964783e-01</leafValues></_>
        <_>
          <internalNodes>
            0 -1 65 -1.4469377696514130e-01</internalNodes>
          <leafValues>
            -7.2849577665328979e-01 1.2880174815654755e-01</leafValues></_>
        <_>
          <internalNodes>
            0 -1 151 -1.0960648069158196e-05</internalNodes>
          <leafValues>
            3.7060827016830444e-01 -3.3120205998420715e-01</leafValues></_>
        <_>
          <internalNodes>
            0 -1 166 -2.5595651823095977e-04</internalNodes>
          <leafValues>
            -6.3760691881179810e-01 2.0056748390197754e-01</leafValues></_>
        <_>
          <internalNodes>
            0 -1 111 1.5323577099479735e-04</internalNodes>
          <leafValues>
            1.8356081843376160e-01 -6.1759638786315918e-01</leafValues></_></weakClassifiers></_>
    <!-- stage 12 -->
    <_>
      <maxWeakCount>16</maxWeakCount>
      <stageThreshold>-1.8261286020278931e+00</stageThreshold>
      <weakClassifiers>
        <_>
          <internalNodes>
            0 -1 128 -7.2868779534474015e-04</internalNodes>
          <leafValues>
            6.7915692925453186e-02 -6.4874064922332764e-01</leafValues></_>
        <_>
          <internalNodes>
            0 -1 124 1.3528158888220787e-03</internalNodes>
          <leafValues>
            -2.9851454496383667e-01 5.2009057998657227e-01</leafValues></_>
        <_>
          <internalNodes>
            0 -1 156 -5.9217363595962524e-03</internalNodes>
          <leafValues>
            5.5024582147598267e-01 -2.3796832561492920e-01</leafValues></_>
        <_>
          <internalNodes>
            0 -1 139 9.1981803998351097e-03</internalNodes>
          <leafValues>
            -5.3600621223449707e-01 2.4863573908805847e-01</leafValues></_>
        <_>
          <internalNodes>
            0 -1 32 -9.3493506312370300e-02</internalNodes>
          <leafValues>
            -6.1341142654418945e-01 2.1156032383441925e-01</leafValues></_>
        <_>
          <internalNodes>
            0 -1 31 -2.6607073843479156e-02</internalNodes>
          <leafValues>
            1.9063976407051086e-01 -7.9542464017868042e-01</leafValues></_>
        <_>
          <internalNodes>
            0 -1 95 9.1518537374213338e-05</internalNodes>
          <leafValues>
            1.9443151354789734e-01 -6.0261344909667969e-01</leafValues></_>
        <_>
          <internalNodes>
            0 -1 167 -1.2803524732589722e-03</internalNodes>
          <leafValues>
            3.7418842315673828e-01 -3.6518135666847229e-01</leafValues></_>
        <_>
          <internalNodes>
            0 -1 60 3.0105398036539555e-03</internalNodes>
          <leafValues>
            -3.5718923807144165e-01 4.2129731178283691e-01</leafValues></_>
        <_>
          <internalNodes>
            0 -1 37 1.8940135836601257e-02</internalNodes>
          <leafValues>
            -4.8356360197067261e-01 3.0243608355522156e-01</leafValues></_>
        <_>
          <internalNodes>
            0 -1 64 -2.9068209230899811e-02</internalNodes>
          <leafValues>
            -1.5230707824230194e-01 9.7231513261795044e-01</leafValues></_>
        <_>
          <internalNodes>
            0 -1 109 2.1754328627139330e-03</internalNodes>
          <leafValues>
            -2.7064135670661926e-01 5.0039535760879517e-01</leafValues></_>
        <_>
          <internalNodes>
            0 -1 48 -3.3046551048755646e-02</internalNodes>
          <leafValues>
            2.0237591862678528e-01 -7.0200920104980469e-01</leafValues></_>
        <_>
          <internalNodes>
            0 -1 77 1.1406948789954185e-02</internalNodes>
          <leafValues>
            -3.3340689539909363e-01 5.1112502813339233e-01</leafValues></_>
        <_>
          <internalNodes>
            0 -1 40 -2.8137210756540298e-04</internalNodes>
          <leafValues>
            -5.6295186281204224e-01 2.6597937941551208e-01</leafValues></_>
        <_>
          <internalNodes>
            0 -1 145 3.1204707920551300e-04</internalNodes>
          <leafValues>
            1.5514740347862244e-01 -7.5022608041763306e-01</leafValues></_></weakClassifiers></_>
    <!-- stage 13 -->
    <_>
      <maxWeakCount>12</maxWeakCount>
      <stageThreshold>-1.5038160085678101e+00</stageThreshold>
      <weakClassifiers>
        <_>
          <internalNodes>
            0 -1 62 5.4370768368244171e-02</internalNodes>
          <leafValues>
            -5.5110532045364380e-01 8.0213904380798340e-01</leafValues></_>
        <_>
          <internalNodes>
            0 -1 89 3.0823552515357733e-03</internalNodes>
          <leafValues>
            -5.1258426904678345e-01 4.0517464280128479e-01</leafValues></_>
        <_>
          <internalNodes>
            0 -1 2 -1.3401701580733061e-03</internalNodes>
          <leafValues>
            -5.6741386651992798e-01 3.4973579645156860e-01</leafValues></_>
        <_>
          <internalNodes>
            0 -1 39 -1.0383339598774910e-02</internalNodes>
          <leafValues>
            9.6621865034103394e-01 -1.7297707498073578e-01</leafValues></_>
        <_>
          <internalNodes>
            0 -1 43 -6.8863883614540100e-02</internalNodes>
          <leafValues>
            -7.0106685161590576e-01 2.6735505461692810e-01</leafValues></_>
        <_>
          <internalNodes>
            0 -1 158 -1.4041758549865335e-04</internalNodes>
          <leafValues>
            -6.1463052034378052e-01 2.7348241209983826e-01</leafValues></_>
        <_>
          <internalNodes>
            0 -1 136 -1.3885995940654539e-05</internalNodes>
          <leafValues>
            4.0621945261955261e-01 -4.9004670977592468e-01</leafValues></_>
        <_>
          <internalNodes>
            0 -1 142 -2.1401062258519232e-04</internalNodes>
          <leafValues>
            -7.3106956481933594e-01 3.0538776516914368e-01</leafValues></_>
        <_>
          <internalNodes>
            0 -1 157 7.4149747379124165e-03</internalNodes>
          <leafValues>
            -3.3034950494766235e-01 6.7415118217468262e-01</leafValues></_>
        <_>
          <internalNodes>
            0 -1 33 -4.6762049198150635e-02</internalNodes>
          <leafValues>
            3.6562284827232361e-01 -5.3932303190231323e-01</leafValues></_>
        <_>
          <internalNodes>
            0 -1 112 -5.8419890701770782e-02</internalNodes>
          <leafValues>
            -4.7495263814926147e-01 4.3672341108322144e-01</leafValues></_>
        <_>
          <internalNodes>
            0 -1 138 1.2849038466811180e-04</internalNodes>
          <leafValues>
            5.1175266504287720e-01 -3.7827351689338684e-01</leafValues></_></weakClassifiers></_>
    <!-- stage 14 -->
    <_>
      <maxWeakCount>8</maxWeakCount>
      <stageThreshold>-1.4816845655441284e+00</stageThreshold>
      <weakClassifiers>
        <_>
          <internalNodes>
            0 -1 140 4.6424288302659988e-03</internalNodes>
          <leafValues>
            -6.5464788675308228e-01 7.5485801696777344e-01</leafValues></_>
        <_>
          <internalNodes>
            0 -1 9 -1.3932970166206360e-01</internalNodes>
          <leafValues>
            -7.8039175271987915e-01 2.9842975735664368e-01</leafValues></_>
        <_>
          <internalNodes>
            0 -1 141 5.9152324683964252e-04</internalNodes>
          <leafValues>
            -4.6536499261856079e-01 5.8540946245193481e-01</leafValues></_>
        <_>
          <internalNodes>
            0 -1 15 3.9523071609437466e-03</internalNodes>
          <leafValues>
            -2.9631879925727844e-01 8.0786436796188354e-01</leafValues></_>
        <_>
          <internalNodes>
            0 -1 38 -2.2341500967741013e-02</internalNodes>
          <leafValues>
            4.3752872943878174e-01 -7.7782422304153442e-01</leafValues></_>
        <_>
          <internalNodes>
            0 -1 45 8.2970289513468742e-03</internalNodes>
          <leafValues>
            3.8028490543365479e-01 -6.8509960174560547e-01</leafValues></_>
        <_>
          <internalNodes>
            0 -1 147 -7.0247324183583260e-03</internalNodes>
          <leafValues>
            7.6187098026275635e-01 -5.0266063213348389e-01</leafValues></_>
        <_>
          <internalNodes>
            0 -1 82 -4.2941406369209290e-02</internalNodes>
          <leafValues>
            -5.6059092283248901e-01 5.3641730546951294e-01</leafValues></_></weakClassifiers></_>
    <!-- stage 15 -->
    <_>
      <maxWeakCount>5</maxWeakCount>
      <stageThreshold>-1.4572178125381470e+00</stageThreshold>
      <weakClassifiers>
        <_>
          <internalNodes>
            0 -1 51 -3.1680036336183548e-03</internalNodes>
          <leafValues>
            1. -6.9797527790069580e-01</leafValues></_>
        <_>
          <internalNodes>
            0 -1 117 1.1132064973935485e-03</internalNodes>
          <leafValues>
            -4.7079375386238098e-01 1.</leafValues></_>
        <_>
          <internalNodes>
            0 -1 155 -6.8142609670758247e-03</internalNodes>
          <leafValues>
            7.5631266832351685e-01 -4.5042312145233154e-01</leafValues></_>
        <_>
          <internalNodes>
            0 -1 152 8.4929782897233963e-03</internalNodes>
          <leafValues>
            8.8853853940963745e-01 -4.1430097818374634e-01</leafValues></_>
        <_>
          <internalNodes>
            0 -1 96 5.8175120502710342e-03</internalNodes>
          <leafValues>
            6.6301113367080688e-01 -6.3046056032180786e-01</leafValues></_></weakClassifiers></_>
    <!-- stage 16 -->
    <_>
      <maxWeakCount>4</maxWeakCount>
      <stageThreshold>-1.1289776563644409e+00</stageThreshold>
      <weakClassifiers>
        <_>
          <internalNodes>
            0 -1 7 -4.5755150495097041e-04</internalNodes>
          <leafValues>
            -8.0077540874481201e-01 1.</leafValues></_>
        <_>
          <internalNodes>
            0 -1 148 -1.3333912938833237e-02</internalNodes>
          <leafValues>
            -6.2478202581405640e-01 1.</leafValues></_>
        <_>
          <internalNodes>
            0 -1 58 -2.9662407469004393e-03</internalNodes>
          <leafValues>
            1. -5.3200805187225342e-01</leafValues></_>
        <_>
          <internalNodes>
            0 -1 163 1.8493115203455091e-04</internalNodes>
          <leafValues>
            8.2858788967132568e-01 -6.6482502222061157e-01</leafValues></_></weakClassifiers></_></stages>
  <features>
    <_>
      <rects>
        <_>
          0 0 2 24 -1.</_>
        <_>
          1 0 1 24 2.</_></rects>
      <tilted>0</tilted></_>
    <_>
      <rects>
        <_>
          0 0 14 16 -1.</_>
        <_>
          0 0 7 8 2.</_>
        <_>
          7 8 7 8 2.</_></rects>
      <tilted>0</tilted></_>
    <_>
      <rects>
        <_>
          0 0 23 2 -1.</_>
        <_>
          0 1 23 1 2.</_></rects>
      <tilted>0</tilted></_>
    <_>
      <rects>
        <_>
          0 1 24 2 -1.</_>
        <_>
          6 1 12 2 2.</_></rects>
      <tilted>0</tilted></_>
    <_>
      <rects>
        <_>
          0 1 12 14 -1.</_>
        <_>
          0 1 6 7 2.</_>
        <_>
          6 8 6 7 2.</_></rects>
      <tilted>0</tilted></_>
    <_>
      <rects>
        <_>
          0 2 8 12 -1.</_>
        <_>
          0 2 4 6 2.</_>
        <_>
          4 8 4 6 2.</_></rects>
      <tilted>0</tilted></_>
    <_>
      <rects>
        <_>
          0 3 2 18 -1.</_>
        <_>
          1 3 1 18 2.</_></rects>
      <tilted>0</tilted></_>
    <_>
      <rects>
        <_>
          0 3 9 1 -1.</_>
        <_>
          3 3 3 1 3.</_></rects>
      <tilted>0</tilted></_>
    <_>
      <rects>
        <_>
          0 6 22 13 -1.</_>
        <_>
          11 6 11 13 2.</_></rects>
      <tilted>0</tilted></_>
    <_>
      <rects>
        <_>
          0 8 12 16 -1.</_>
        <_>
          6 8 6 16 2.</_></rects>
      <tilted>0</tilted></_>
    <_>
      <rects>
        <_>
          0 9 6 14 -1.</_>
        <_>
          0 9 3 7 2.</_>
        <_>
          3 16 3 7 2.</_></rects>
      <tilted>0</tilted></_>
    <_>
      <rects>
        <_>
          0 9 8 12 -1.</_>
        <_>
          0 9 4 6 2.</_>
        <_>
          4 15 4 6 2.</_></rects>
      <tilted>0</tilted></_>
    <_>
      <rects>
        <_>
          0 9 10 14 -1.</_>
        <_>
          0 9 5 7 2.</_>
        <_>
          5 16 5 7 2.</_></rects>
      <tilted>0</tilted></_>
    <_>
      <rects>
        <_>
          0 10 10 12 -1.</_>
        <_>
          0 10 5 6 2.</_>
        <_>
          5 16 5 6 2.</_></rects>
      <tilted>0</tilted></_>
    <_>
      <rects>
        <_>
          0 10 16 3 -1.</_>
        <_>
          8 10 8 3 2.</_></rects>
      <tilted>0</tilted></_>
    <_>
      <rects>
        <_>
          0 12 4 7 -1.</_>
        <_>
          1 12 2 7 2.</_></rects>
      <tilted>0</tilted></_>
    <_>
      <rects>
        <_>
          1 0 2 24 -1.</_>
        <_>
          1 6 2 12 2.</_></rects>
      <tilted>0</tilted></_>
    <_>
      <rects>
        <_>
          1 0 6 1 -1.</_>
        <_>
          1 0 3 1 2.</_></rects>
      <tilted>1</tilted></_>
    <_>
      <rects>
        <_>
          1 8 6 7 -1.</_>
        <_>
          4 8 3 7 2.</_></rects>
      <tilted>0</tilted></_>
    <_>
      <rects>
        <_>
          1 8 10 3 -1.</_>
        <_>
          6 8 5 3 2.</_></rects>
      <tilted>0</tilted></_>
    <_>
      <rects>
        <_>
          1 9 6 6 -1.</_>
        <_>
          4 9 3 6 2.</_></rects>
      <tilted>0</tilted></_>
    <_>
      <rects>
        <_>
          1 10 20 4 -1.</_>
        <_>
          6 10 10 4 2.</_></rects>
      <tilted>0</tilted></_>
    <_>
      <rects>
        <_>
          1 10 20 5 -1.</_>
        <_>
          6 10 10 5 2.</_></rects>
      <tilted>0</tilted></_>
    <_>
      <rects>
        <_>
          1 11 18 4 -1.</_>
        <_>
          7 11 6 4 3.</_></rects>
      <tilted>0</tilted></_>
    <_>
      <rects>
        <_>
          1 12 1 2 -1.</_>
        <_>
          1 13 1 1 2.</_></rects>
      <tilted>0</tilted></_>
    <_>
      <rects>
        <_>
          1 13 1 2 -1.</_>
        <_>
          1 14 1 1 2.</_></rects>
      <tilted>0</tilted></_>
    <_>
      <rects>
        <_>
          1 16 18 8 -1.</_>
        <_>
          1 20 18 4 2.</_></rects>
      <tilted>0</tilted></_>
    <_>
      <rects>
        <_>
          2 0 6 2 -1.</_>
        <_>
          2 0 3 2 2.</_></rects>
      <tilted>1</tilted></_>
    <_>
      <rects>
        <_>
          2 3 22 18 -1.</_>
        <_>
          13 3 11 18 2.</_></rects>
      <tilted>0</tilted></_>
    <_>
      <rects>
        <_>
          2 5 21 15 -1.</_>
        <_>
          9 10 7 5 9.</_></rects>
      <tilted>0</tilted></_>
    <_>
      <rects>
        <_>
          2 7 12 8 -1.</_>
        <_>
          8 7 6 8 2.</_></rects>
      <tilted>0</tilted></_>
    <_>
      <rects>
        <_>
          2 10 20 3 -1.</_>
        <_>
          7 10 10 3 2.</_></rects>
      <tilted>0</tilted></_>
    <_>
      <rects>
        <_>
          2 10 20 4 -1.</_>
        <_>
          7 10 10 4 2.</_></rects>
      <tilted>0</tilted></_>
    <_>
      <rects>
        <_>
          2 13 18 3 -1.</_>
        <_>
          8 14 6 1 9.</_></rects>
      <tilted>0</tilted></_>
    <_>
      <rects>
        <_>
          2 14 12 10 -1.</_>
        <_>
          2 19 12 5 2.</_></rects>
      <tilted>0</tilted></_>
    <_>
      <rects>
        <_>
          3 9 20 6 -1.</_>
        <_>
          8 9 10 6 2.</_></rects>
      <tilted>0</tilted></_>
    <_>
      <rects>
        <_>
          3 9 18 6 -1.</_>
        <_>
          9 9 6 6 3.</_></rects>
      <tilted>0</tilted></_>
    <_>
      <rects>
        <_>
          4 0 8 4 -1.</_>
        <_>
          6 2 4 4 2.</_></rects>
      <tilted>1</tilted></_>
    <_>
      <rects>
        <_>
          4 10 16 4 -1.</_>
        <_>
          8 10 8 4 2.</_></rects>
      <tilted>0</tilted></_>
    <_>
      <rects>
        <_>
          4 13 3 3 -1.</_>
        <_>
          5 14 1 1 9.</_></rects>
      <tilted>0</tilted></_>
    <_>
      <rects>
        <_>
          4 19 2 2 -1.</_>
        <_>
          4 20 2 1 2.</_></rects>
      <tilted>0</tilted></_>
    <_>
      <rects>
        <_>
          5 1 11 8 -1.</_>
        <_>
          5 5 11 4 2.</_></rects>
      <tilted>0</tilted></_>
    <_>
      <rects>
        <_>
          5 4 11 16 -1.</_>
        <_>
          5 8 11 8 2.</_></rects>
      <tilted>0</tilted></_>
    <_>
      <rects>
        <_>
          5 10 15 3 -1.</_>
        <_>
          10 11 5 1 9.</_></rects>
      <tilted>0</tilted></_>
    <_>
      <rects>
        <_>
          5 20 2 1 -1.</_>
        <_>
          6 20 1 1 2.</_></rects>
      <tilted>0</tilted></_>
    <_>
      <rects>
        <_>
          6 1 9 3 -1.</_>
        <_>
          9 1 3 3 3.</_></rects>
      <tilted>0</tilted></_>
    <_>
      <rects>
        <_>
          6 2 1 2 -1.</_>
        <_>
          6 3 1 1 2.</_></rects>
      <tilted>0</tilted></_>
    <_>
      <rects>
        <_>
          6 4 8 6 -1.</_>
        <_>
          6 7 8 3 2.</_></rects>
      <tilted>0</tilted></_>
    <_>
      <rects>
        <_>
          6 4 12 14 -1.</_>
        <_>
          6 11 12 7 2.</_></rects>
      <tilted>0</tilted></_>
    <_>
      <rects>
        <_>
          6 5 4 3 -1.</_>
        <_>
          6 5 2 3 2.</_></rects>
      <tilted>1</tilted></_>
    <_>
      <rects>
        <_>
          6 5 10 15 -1.</_>
        <_>
          6 10 10 5 3.</_></rects>
      <tilted>0</tilted></_>
    <_>
      <rects>
        <_>
          6 10 4 4 -1.</_>
        <_>
          6 10 2 2 2.</_>
        <_>
          8 12 2 2 2.</_></rects>
      <tilted>0</tilted></_>
    <_>
      <rects>
        <_>
          6 10 16 4 -1.</_>
        <_>
          10 10 8 4 2.</_></rects>
      <tilted>0</tilted></_>
    <_>
      <rects>
        <_>
          6 10 6 4 -1.</_>
        <_>
          6 10 6 2 2.</_></rects>
      <tilted>1</tilted></_>
    <_>
      <rects>
        <_>
          6 16 1 6 -1.</_>
        <_>
          6 16 1 3 2.</_></rects>
      <tilted>1</tilted></_>
    <_>
      <rects>
        <_>
          6 16 2 6 -1.</_>
        <_>
          6 16 2 3 2.</_></rects>
      <tilted>1</tilted></_>
    <_>
      <rects>
        <_>
          7 2 8 20 -1.</_>
        <_>
          7 7 8 10 2.</_></rects>
      <tilted>0</tilted></_>
    <_>
      <rects>
        <_>
          7 4 8 6 -1.</_>
        <_>
          7 7 8 3 2.</_></rects>
      <tilted>0</tilted></_>
    <_>
      <rects>
        <_>
          7 5 4 12 -1.</_>
        <_>
          9 5 2 12 2.</_></rects>
      <tilted>0</tilted></_>
    <_>
      <rects>
        <_>
          7 5 12 12 -1.</_>
        <_>
          11 9 4 4 9.</_></rects>
      <tilted>0</tilted></_>
    <_>
      <rects>
        <_>
          7 11 8 2 -1.</_>
        <_>
          7 11 4 1 2.</_>
        <_>
          11 12 4 1 2.</_></rects>
      <tilted>0</tilted></_>
    <_>
      <rects>
        <_>
          7 12 4 4 -1.</_>
        <_>
          9 12 2 4 2.</_></rects>
      <tilted>0</tilted></_>
    <_>
      <rects>
        <_>
          8 0 6 16 -1.</_>
        <_>
          8 4 6 8 2.</_></rects>
      <tilted>0</tilted></_>
    <_>
      <rects>
        <_>
          8 0 12 24 -1.</_>
        <_>
          14 0 6 24 2.</_></rects>
      <tilted>0</tilted></_>
    <_>
      <rects>
        <_>
          8 0 7 24 -1.</_>
        <_>
          8 6 7 12 2.</_></rects>
      <tilted>0</tilted></_>
    <_>
      <rects>
        <_>
          8 0 8 22 -1.</_>
        <_>
          8 11 8 11 2.</_></rects>
      <tilted>0</tilted></_>
    <_>
      <rects>
        <_>
          8 3 10 4 -1.</_>
        <_>
          8 5 10 2 2.</_></rects>
      <tilted>0</tilted></_>
    <_>
      <rects>
        <_>
          8 4 5 6 -1.</_>
        <_>
          8 7 5 3 2.</_></rects>
      <tilted>0</tilted></_>
    <_>
      <rects>
        <_>
          8 4 6 6 -1.</_>
        <_>
          8 7 6 3 2.</_></rects>
      <tilted>0</tilted></_>
    <_>
      <rects>
        <_>
          8 4 7 16 -1.</_>
        <_>
          8 8 7 8 2.</_></rects>
      <tilted>0</tilted></_>
    <_>
      <rects>
        <_>
          8 8 14 8 -1.</_>
        <_>
          15 8 7 8 2.</_></rects>
      <tilted>0</tilted></_>
    <_>
      <rects>
        <_>
          8 8 8 8 -1.</_>
        <_>
          8 12 8 4 2.</_></rects>
      <tilted>0</tilted></_>
    <_>
      <rects>
        <_>
          8 9 1 3 -1.</_>
        <_>
          8 10 1 1 3.</_></rects>
      <tilted>0</tilted></_>
    <_>
      <rects>
        <_>
          8 9 5 6 -1.</_>
        <_>
          8 12 5 3 2.</_></rects>
      <tilted>0</tilted></_>
    <_>
      <rects>
        <_>
          8 9 12 7 -1.</_>
        <_>
          14 9 6 7 2.</_></rects>
      <tilted>0</tilted></_>
    <_>
      <rects>
        <_>
          8 13 6 8 -1.</_>
        <_>
          8 17 6 4 2.</_></rects>
      <tilted>0</tilted></_>
    <_>
      <rects>
        <_>
          8 14 6 8 -1.</_>
        <_>
          8 18 6 4 2.</_></rects>
      <tilted>0</tilted></_>
    <_>
      <rects>
        <_>
          8 15 1 8 -1.</_>
        <_>
          8 15 1 4 2.</_></rects>
      <tilted>1</tilted></_>
    <_>
      <rects>
        <_>
          8 20 2 1 -1.</_>
        <_>
          9 20 1 1 2.</_></rects>
      <tilted>0</tilted></_>
    <_>
      <rects>
        <_>
          9 1 5 8 -1.</_>
        <_>
          9 5 5 4 2.</_></rects>
      <tilted>0</tilted></_>
    <_>
      <rects>
        <_>
          9 4 4 9 -1.</_>
        <_>
          9 7 4 3 3.</_></rects>
      <tilted>0</tilted></_>
    <_>
      <rects>
        <_>
          9 4 12 4 -1.</_>
        <_>
          13 8 4 4 3.</_></rects>
      <tilted>1</tilted></_>
    <_>
      <rects>
        <_>
          9 4 7 8 -1.</_>
        <_>
          9 4 7 4 2.</_></rects>
      <tilted>1</tilted></_>
    <_>
      <rects>
        <_>
          9 5 8 3 -1.</_>
        <_>
          9 5 4 3 2.</_></rects>
      <tilted>1</tilted></_>
    <_>
      <rects>
        <_>
          9 6 9 12 -1.</_>
        <_>
          9 12 9 6 2.</_></rects>
      <tilted>0</tilted></_>
    <_>
      <rects>
        <_>
          9 7 6 12 -1.</_>
        <_>
          9 13 6 6 2.</_></rects>
      <tilted>0</tilted></_>
    <_>
      <rects>
        <_>
          9 9 4 3 -1.</_>
        <_>
          9 9 2 3 2.</_></rects>
      <tilted>1</tilted></_>
    <_>
      <rects>
        <_>
          9 10 2 2 -1.</_>
        <_>
          9 11 2 1 2.</_></rects>
      <tilted>0</tilted></_>
    <_>
      <rects>
        <_>
          9 10 2 4 -1.</_>
        <_>
          9 12 2 2 2.</_></rects>
      <tilted>0</tilted></_>
    <_>
      <rects>
        <_>
          9 10 4 4 -1.</_>
        <_>
          9 10 2 2 2.</_>
        <_>
          11 12 2 2 2.</_></rects>
      <tilted>0</tilted></_>
    <_>
      <rects>
        <_>
          9 10 3 4 -1.</_>
        <_>
          9 12 3 2 2.</_></rects>
      <tilted>0</tilted></_>
    <_>
      <rects>
        <_>
          9 10 6 3 -1.</_>
        <_>
          12 10 3 3 2.</_></rects>
      <tilted>0</tilted></_>
    <_>
      <rects>
        <_>
          9 10 3 9 -1.</_>
        <_>
          9 13 3 3 3.</_></rects>
      <tilted>0</tilted></_>
    <_>
      <rects>
        <_>
          9 10 4 4 -1.</_>
        <_>
          9 12 4 2 2.</_></rects>
      <tilted>0</tilted></_>
    <_>
      <rects>
        <_>
          9 11 8 4 -1.</_>
        <_>
          9 11 4 2 2.</_>
        <_>
          13 13 4 2 2.</_></rects>
      <tilted>0</tilted></_>
    <_>
      <rects>
        <_>
          9 19 2 1 -1.</_>
        <_>
          10 19 1 1 2.</_></rects>
      <tilted>0</tilted></_>
    <_>
      <rects>
        <_>
          10 0 4 20 -1.</_>
        <_>
          10 0 2 10 2.</_>
        <_>
          12 10 2 10 2.</_></rects>
      <tilted>0</tilted></_>
    <_>
      <rects>
        <_>
          10 1 12 14 -1.</_>
        <_>
          10 1 6 7 2.</_>
        <_>
          16 8 6 7 2.</_></rects>
      <tilted>0</tilted></_>
    <_>
      <rects>
        <_>
          10 6 6 3 -1.</_>
        <_>
          10 6 3 3 2.</_></rects>
      <tilted>1</tilted></_>
    <_>
      <rects>
        <_>
          10 8 3 6 -1.</_>
        <_>
          11 10 1 2 9.</_></rects>
      <tilted>0</tilted></_>
    <_>
      <rects>
        <_>
          10 8 6 4 -1.</_>
        <_>
          10 8 3 2 2.</_>
        <_>
          13 10 3 2 2.</_></rects>
      <tilted>0</tilted></_>
    <_>
      <rects>
        <_>
          10 8 6 2 -1.</_>
        <_>
          10 8 3 2 2.</_></rects>
      <tilted>1</tilted></_>
    <_>
      <rects>
        <_>
          10 9 1 2 -1.</_>
        <_>
          10 10 1 1 2.</_></rects>
      <tilted>0</tilted></_>
    <_>
      <rects>
        <_>
          10 9 2 3 -1.</_>
        <_>
          10 10 2 1 3.</_></rects>
      <tilted>0</tilted></_>
    <_>
      <rects>
        <_>
          10 9 14 14 -1.</_>
        <_>
          10 9 7 7 2.</_>
        <_>
          17 16 7 7 2.</_></rects>
      <tilted>0</tilted></_>
    <_>
      <rects>
        <_>
          10 10 9 2 -1.</_>
        <_>
          13 10 3 2 3.</_></rects>
      <tilted>0</tilted></_>
    <_>
      <rects>
        <_>
          10 10 6 3 -1.</_>
        <_>
          13 10 3 3 2.</_></rects>
      <tilted>0</tilted></_>
    <_>
      <rects>
        <_>
          10 10 12 3 -1.</_>
        <_>
          13 10 6 3 2.</_></rects>
      <tilted>0</tilted></_>
    <_>
      <rects>
        <_>
          10 11 2 2 -1.</_>
        <_>
          10 11 1 1 2.</_>
        <_>
          11 12 1 1 2.</_></rects>
      <tilted>0</tilted></_>
    <_>
      <rects>
        <_>
          10 18 9 4 -1.</_>
        <_>
          10 20 9 2 2.</_></rects>
      <tilted>0</tilted></_>
    <_>
      <rects>
        <_>
          11 1 12 6 -1.</_>
        <_>
          11 1 6 6 2.</_></rects>
      <tilted>1</tilted></_>
    <_>
      <rects>
        <_>
          11 3 1 2 -1.</_>
        <_>
          11 4 1 1 2.</_></rects>
      <tilted>0</tilted></_>
    <_>
      <rects>
        <_>
          11 6 8 9 -1.</_>
        <_>
          13 8 4 9 2.</_></rects>
      <tilted>1</tilted></_>
    <_>
      <rects>
        <_>
          11 9 1 2 -1.</_>
        <_>
          11 10 1 1 2.</_></rects>
      <tilted>0</tilted></_>
    <_>
      <rects>
        <_>
          11 11 1 2 -1.</_>
        <_>
          11 12 1 1 2.</_></rects>
      <tilted>0</tilted></_>
    <_>
      <rects>
        <_>
          11 11 2 2 -1.</_>
        <_>
          11 12 2 1 2.</_></rects>
      <tilted>0</tilted></_>
    <_>
      <rects>
        <_>
          11 11 2 4 -1.</_>
        <_>
          11 12 2 2 2.</_></rects>
      <tilted>0</tilted></_>
    <_>
      <rects>
        <_>
          11 11 5 2 -1.</_>
        <_>
          11 12 5 1 2.</_></rects>
      <tilted>0</tilted></_>
    <_>
      <rects>
        <_>
          11 12 2 2 -1.</_>
        <_>
          11 12 1 1 2.</_>
        <_>
          12 13 1 1 2.</_></rects>
      <tilted>0</tilted></_>
    <_>
      <rects>
        <_>
          11 12 3 3 -1.</_>
        <_>
          12 13 1 1 9.</_></rects>
      <tilted>0</tilted></_>
    <_>
      <rects>
        <_>
          12 3 2 1 -1.</_>
        <_>
          13 3 1 1 2.</_></rects>
      <tilted>0</tilted></_>
    <_>
      <rects>
        <_>
          12 3 1 2 -1.</_>
        <_>
          12 4 1 1 2.</_></rects>
      <tilted>0</tilted></_>
    <_>
      <rects>
        <_>
          12 6 6 12 -1.</_>
        <_>
          14 10 2 4 9.</_></rects>
      <tilted>0</tilted></_>
    <_>
      <rects>
        <_>
          12 6 8 5 -1.</_>
        <_>
          12 6 4 5 2.</_></rects>
      <tilted>1</tilted></_>
    <_>
      <rects>
        <_>
          12 7 3 4 -1.</_>
        <_>
          13 7 1 4 3.</_></rects>
      <tilted>0</tilted></_>
    <_>
      <rects>
        <_>
          12 8 6 9 -1.</_>
        <_>
          14 11 2 3 9.</_></rects>
      <tilted>0</tilted></_>
    <_>
      <rects>
        <_>
          12 9 4 2 -1.</_>
        <_>
          12 9 2 2 2.</_></rects>
      <tilted>1</tilted></_>
    <_>
      <rects>
        <_>
          12 11 4 3 -1.</_>
        <_>
          14 11 2 3 2.</_></rects>
      <tilted>0</tilted></_>
    <_>
      <rects>
        <_>
          12 12 4 2 -1.</_>
        <_>
          14 12 2 2 2.</_></rects>
      <tilted>0</tilted></_>
    <_>
      <rects>
        <_>
          12 16 4 4 -1.</_>
        <_>
          12 18 4 2 2.</_></rects>
      <tilted>0</tilted></_>
    <_>
      <rects>
        <_>
          13 4 7 8 -1.</_>
        <_>
          13 4 7 4 2.</_></rects>
      <tilted>1</tilted></_>
    <_>
      <rects>
        <_>
          13 6 8 4 -1.</_>
        <_>
          13 6 4 4 2.</_></rects>
      <tilted>1</tilted></_>
    <_>
      <rects>
        <_>
          14 2 10 14 -1.</_>
        <_>
          14 2 5 7 2.</_>
        <_>
          19 9 5 7 2.</_></rects>
      <tilted>0</tilted></_>
    <_>
      <rects>
        <_>
          14 3 2 1 -1.</_>
        <_>
          15 3 1 1 2.</_></rects>
      <tilted>0</tilted></_>
    <_>
      <rects>
        <_>
          14 5 7 8 -1.</_>
        <_>
          14 5 7 4 2.</_></rects>
      <tilted>1</tilted></_>
    <_>
      <rects>
        <_>
          14 6 2 12 -1.</_>
        <_>
          14 10 2 4 3.</_></rects>
      <tilted>0</tilted></_>
    <_>
      <rects>
        <_>
          15 0 4 6 -1.</_>
        <_>
          17 0 2 6 2.</_></rects>
      <tilted>0</tilted></_>
    <_>
      <rects>
        <_>
          15 6 5 6 -1.</_>
        <_>
          15 6 5 3 2.</_></rects>
      <tilted>1</tilted></_>
    <_>
      <rects>
        <_>
          15 9 4 1 -1.</_>
        <_>
          17 9 2 1 2.</_></rects>
      <tilted>0</tilted></_>
    <_>
      <rects>
        <_>
          15 10 8 4 -1.</_>
        <_>
          19 10 4 4 2.</_></rects>
      <tilted>0</tilted></_>
    <_>
      <rects>
        <_>
          15 12 3 3 -1.</_>
        <_>
          16 13 1 1 9.</_></rects>
      <tilted>0</tilted></_>
    <_>
      <rects>
        <_>
          15 16 1 6 -1.</_>
        <_>
          15 19 1 3 2.</_></rects>
      <tilted>0</tilted></_>
    <_>
      <rects>
        <_>
          16 3 2 1 -1.</_>
        <_>
          17 3 1 1 2.</_></rects>
      <tilted>0</tilted></_>
    <_>
      <rects>
        <_>
          16 9 6 8 -1.</_>
        <_>
          19 9 3 8 2.</_></rects>
      <tilted>0</tilted></_>
    <_>
      <rects>
        <_>
          16 13 8 3 -1.</_>
        <_>
          16 13 4 3 2.</_></rects>
      <tilted>1</tilted></_>
    <_>
      <rects>
        <_>
          16 14 2 1 -1.</_>
        <_>
          16 14 1 1 2.</_></rects>
      <tilted>1</tilted></_>
    <_>
      <rects>
        <_>
          16 15 8 1 -1.</_>
        <_>
          16 15 4 1 2.</_></rects>
      <tilted>1</tilted></_>
    <_>
      <rects>
        <_>
          18 4 6 20 -1.</_>
        <_>
          21 4 3 20 2.</_></rects>
      <tilted>0</tilted></_>
    <_>
      <rects>
        <_>
          18 5 6 10 -1.</_>
        <_>
          20 7 2 10 3.</_></rects>
      <tilted>1</tilted></_>
    <_>
      <rects>
        <_>
          18 6 2 1 -1.</_>
        <_>
          19 6 1 1 2.</_></rects>
      <tilted>0</tilted></_>
    <_>
      <rects>
        <_>
          18 6 2 9 -1.</_>
        <_>
          15 9 2 3 3.</_></rects>
      <tilted>1</tilted></_>
    <_>
      <rects>
        <_>
          18 11 2 2 -1.</_>
        <_>
          19 11 1 2 2.</_></rects>
      <tilted>0</tilted></_>
    <_>
      <rects>
        <_>
          18 12 4 6 -1.</_>
        <_>
          19 13 2 6 2.</_></rects>
      <tilted>1</tilted></_>
    <_>
      <rects>
        <_>
          19 8 2 1 -1.</_>
        <_>
          20 8 1 1 2.</_></rects>
      <tilted>0</tilted></_>
    <_>
      <rects>
        <_>
          19 10 4 1 -1.</_>
        <_>
          21 10 2 1 2.</_></rects>
      <tilted>0</tilted></_>
    <_>
      <rects>
        <_>
          20 0 4 22 -1.</_>
        <_>
          22 0 2 22 2.</_></rects>
      <tilted>0</tilted></_>
    <_>
      <rects>
        <_>
          20 2 4 7 -1.</_>
        <_>
          22 2 2 7 2.</_></rects>
      <tilted>0</tilted></_>
    <_>
      <rects>
        <_>
          20 4 4 12 -1.</_>
        <_>
          20 4 2 6 2.</_>
        <_>
          22 10 2 6 2.</_></rects>
      <tilted>0</tilted></_>
    <_>
      <rects>
        <_>
          20 9 1 2 -1.</_>
        <_>
          20 10 1 1 2.</_></rects>
      <tilted>0</tilted></_>
    <_>
      <rects>
        <_>
          20 10 2 1 -1.</_>
        <_>
          21 10 1 1 2.</_></rects>
      <tilted>0</tilted></_>
    <_>
      <rects>
        <_>
          20 11 2 3 -1.</_>
        <_>
          21 11 1 3 2.</_></rects>
      <tilted>0</tilted></_>
    <_>
      <rects>
        <_>
          20 13 4 6 -1.</_>
        <_>
          20 13 2 3 2.</_>
        <_>
          22 16 2 3 2.</_></rects>
      <tilted>0</tilted></_>
    <_>
      <rects>
        <_>
          21 8 2 1 -1.</_>
        <_>
          22 8 1 1 2.</_></rects>
      <tilted>0</tilted></_>
    <_>
      <rects>
        <_>
          21 13 2 1 -1.</_>
        <_>
          22 13 1 1 2.</_></rects>
      <tilted>0</tilted></_>
    <_>
      <rects>
        <_>
          22 0 2 8 -1.</_>
        <_>
          22 0 2 4 2.</_></rects>
      <tilted>1</tilted></_>
    <_>
      <rects>
        <_>
          22 2 2 19 -1.</_>
        <_>
          23 2 1 19 2.</_></rects>
      <tilted>0</tilted></_>
    <_>
      <rects>
        <_>
          22 10 1 2 -1.</_>
        <_>
          22 11 1 1 2.</_></rects>
      <tilted>0</tilted></_>
    <_>
      <rects>
        <_>
          23 12 1 8 -1.</_>
        <_>
          23 12 1 4 2.</_></rects>
      <tilted>1</tilted></_></features></cascade>
</opencv_storage>
